<?xml version="1.0"?>
<opencv_storage>
<opencv_ml_svm>
  <format>3</format>
  <svmType>C_SVC</svmType>
  <kernel>
    <type>RBF</type>
    <gamma>1.</gamma></kernel>
  <C>1.</C>
  <term_criteria><epsilon>1.1920928955078125e-07</epsilon>
    <iterations>1000</iterations></term_criteria>
  <var_count>37</var_count>
  <class_count>2</class_count>
  <class_labels type_id="opencv-matrix">
    <rows>2</rows>
    <cols>1</cols>
    <dt>i</dt>
    <data>
      1 2</data></class_labels>
  <sv_total>84</sv_total>
  <support_vectors>
    <_>
      5.86979697e-03 2.77481321e-02 7.79082179e-02 1.86766274e-02
      2.98826024e-02 6.51013851e-02 5.28281741e-02 1.60085373e-02
      5.86979697e-03 3.09498385e-02 6.40341500e-03 3.52187827e-02
      1.54749192e-02 7.47065060e-03 4.16221991e-02 1.01387408e-02
      1.86766274e-02 1.81430094e-02 2.08110996e-02 3.62860188e-02
      3.78868729e-02 3.20170750e-03 6.29669130e-02 2.56136600e-02
      5.33617940e-03 1.70757733e-02 6.93703303e-03 4.32230495e-02
      1.76093914e-02 2.45464239e-02 7.47065060e-03 9.07150470e-03
      6.67022392e-02 4.10885811e-02 1.12059759e-02 2.93489862e-02
      4.96264659e-02</_>
    <_>
      1.89701896e-02 1.76151767e-02 1.26016259e-01 4.15537506e-02
      2.93586273e-02 2.12285463e-02 1.89701896e-02 1.12917796e-02
      5.42005431e-03 2.16802172e-02 1.12917796e-02 3.61336954e-02
      4.69738021e-02 6.77506812e-03 2.57452577e-02 2.12285463e-02
      2.89069563e-02 3.11653130e-02 2.52935868e-02 2.16802172e-02
      1.40018072e-02 2.61969287e-02 3.43270116e-02 6.77506812e-03
      4.83288169e-02 2.07768753e-02 1.58084910e-02 1.67118348e-02
      2.98102982e-02 9.03342385e-03 3.16169821e-02 3.83920521e-02
      8.13008100e-03 2.61969287e-02 2.98102982e-02 4.78771478e-02
      2.89069563e-02</_>
    <_>
      2.26817876e-02 2.16811206e-02 1.53102070e-01 3.86924632e-02
      2.46831235e-02 2.13475656e-02 4.33622440e-03 2.36824565e-02
      7.67178135e-03 8.33889283e-03 4.66977991e-03 4.46964651e-02
      8.43895972e-02 1.46764517e-02 2.73515675e-02 1.26751168e-02
      2.36824565e-02 2.96864584e-02 2.10140105e-02 9.00600385e-03
      4.00266843e-03 2.80186795e-02 4.76984680e-02 1.66777859e-03
      6.57104775e-02 3.16877924e-02 5.33689139e-03 1.33422285e-03
      3.13542373e-02 1.33422287e-02 1.63442306e-02 3.33555713e-02
      3.00200144e-03 2.00133435e-02 2.93529034e-02 3.86924632e-02
      3.10206804e-02</_>
    <_>
      1.05820103e-02 1.32275131e-02 2.64550257e-03 1.58730149e-02
      1.32275131e-02 3.70370373e-02 6.08465597e-02 2.11640205e-02
      2.38095224e-02 5.02645485e-02 2.64550257e-03 3.17460299e-02
      2.64550257e-03 4.23280410e-02 1.58730149e-02 1.05820103e-02
      7.93650746e-03 2.91005280e-02 3.96825373e-02 4.76190448e-02
      1.21693119e-01 1.05820103e-02 1.58730149e-02 1.85185187e-02
      2.64550257e-03 3.17460299e-02 0. 3.96825373e-02 0. 2.91005280e-02
      2.11640205e-02 2.64550257e-03 1.16402112e-01 2.64550257e-03
      1.58730149e-02 5.02645485e-02 4.23280410e-02</_>
    <_>
      4.34210561e-02 1.31578948e-02 8.81578997e-02 2.89473701e-02
      1.97368432e-02 9.21052694e-03 2.36842111e-02 1.97368432e-02
      9.21052694e-03 9.21052694e-03 1.31578948e-02 4.34210561e-02
      4.86842133e-02 1.71052646e-02 2.63157897e-02 1.71052646e-02
      3.02631594e-02 1.84210539e-02 5.26315812e-03 1.97368432e-02
      2.10526325e-02 5.78947403e-02 4.60526347e-02 0. 3.02631594e-02
      1.84210539e-02 3.94736882e-03 0. 4.34210561e-02 1.05263162e-02
      5.26315793e-02 1.31578948e-02 3.42105292e-02 7.89473765e-03
      4.21052650e-02 7.10526332e-02 4.34210561e-02</_>
    <_>
      2.08159871e-02 3.49708572e-02 8.32639448e-03 1.16569521e-02
      7.49375531e-03 2.66444627e-02 6.74437955e-02 3.99666950e-02
      2.99750213e-02 5.91174029e-02 1.49875106e-02 4.16319724e-03
      9.99167375e-03 2.16486268e-02 5.32889254e-02 1.33222314e-02
      1.74854286e-02 1.58201493e-02 6.49458766e-02 3.16402987e-02
      1.83180682e-02 2.74771024e-02 1.49875106e-02 4.74604480e-02
      5.82847605e-03 1.41548710e-02 1.74854286e-02 6.49458766e-02
      1.24895917e-02 5.24562858e-02 1.66527890e-02 1.66527890e-02
      1.74854286e-02 2.16486268e-02 1.83180682e-02 5.99500425e-02
      1.99833475e-02</_>
    <_>
      2.44519394e-02 2.10792590e-02 3.70994955e-02 3.11973020e-02
      3.45699824e-02 2.44519394e-02 1.68634057e-02 1.18043851e-02
      1.01180440e-02 4.63743694e-02 1.01180440e-02 4.80607077e-02
      2.61382796e-02 1.51770655e-02 4.04721759e-02 2.95109618e-02
      2.02360880e-02 3.62563245e-02 3.11973020e-02 2.02360880e-02
      4.21585180e-02 3.20404731e-02 4.21585180e-02 1.43338954e-02
      1.93929169e-02 4.04721759e-02 1.85497478e-02 1.26475552e-02
      3.54131535e-02 1.34907253e-02 2.78246216e-02 2.52951104e-02
      2.52951104e-02 2.44519394e-02 2.86677908e-02 3.28836441e-02
      2.95109618e-02</_>
    <_>
      3.33333351e-02 1.66666675e-02 4.89898995e-02 2.57575773e-02
      9.09090973e-03 9.09090973e-03 2.27272734e-02 2.92929299e-02
      6.61616176e-02 1.01010110e-02 4.54545487e-03 1.46464650e-02
      3.68686877e-02 1.06565662e-01 7.27272779e-02 1.21212127e-02
      3.78787890e-02 1.16161620e-02 1.56565662e-02 2.72727292e-02
      1.21212127e-02 2.42424253e-02 2.42424253e-02 5.05050528e-04
      3.13131325e-02 9.59596038e-03 5.05050551e-03 5.55555569e-03
      2.82828286e-02 1.31313140e-02 4.04040441e-02 1.66666675e-02
      4.14141417e-02 1.61616169e-02 4.54545468e-02 4.74747494e-02
      2.72727292e-02</_>
    <_>
      7.93650839e-03 2.77777798e-02 3.57142873e-02 1.78571437e-02
      5.75396866e-02 4.56349216e-02 7.93650839e-03 1.38888899e-02
      1.58730168e-02 4.56349216e-02 1.98412710e-03 4.16666679e-02
      1.98412705e-02 3.76984142e-02 1.78571437e-02 1.38888899e-02
      2.38095261e-02 2.77777798e-02 2.57936530e-02 2.18253974e-02
      8.53174627e-02 1.58730168e-02 5.15873060e-02 0. 9.92063526e-03
      3.96825410e-02 7.93650839e-03 0. 1.58730168e-02 5.95238153e-03
      2.77777798e-02 1.78571437e-02 8.92857164e-02 2.97619067e-02
      2.38095261e-02 1.38888899e-02 5.75396866e-02</_>
    <_>
      2.76625175e-02 4.70262803e-02 1.38312588e-02 1.38312588e-02
      3.45781483e-02 1.10650072e-02 1.79806370e-02 4.14937772e-02
      2.48962659e-02 3.59612741e-02 6.91562938e-03 1.65975112e-02
      3.04287691e-02 4.84094061e-02 2.62793917e-02 1.52143845e-02
      5.53250359e-03 5.25587834e-02 8.29875544e-02 1.79806370e-02
      4.01106514e-02 2.07468886e-02 1.24481330e-02 5.53250359e-03
      3.87275256e-02 3.18118967e-02 1.79806370e-02 1.24481330e-02
      6.91562938e-03 3.87275256e-02 2.62793917e-02 1.79806370e-02
      5.80912866e-02 4.56431545e-02 2.48962659e-02 1.93637628e-02
      1.10650072e-02</_>
    <_>
      4.09836043e-03 1.63934417e-02 8.19672048e-02 8.19672048e-02
      2.45901626e-02 1.22950813e-02 4.09836043e-03 4.09836043e-03 0.
      3.27868834e-02 4.09836043e-03 3.27868834e-02 1.22950813e-02
      4.91803251e-02 2.45901626e-02 3.27868834e-02 2.45901626e-02
      2.04918012e-02 2.04918012e-02 0. 4.50819656e-02 2.04918012e-02
      9.83606502e-02 0. 1.22950813e-02 2.04918012e-02 4.09836043e-03 0.
      0. 0. 3.68852429e-02 8.19672085e-03 1.43442616e-01 1.22950813e-02
      4.09836024e-02 1.22950813e-02 6.14754073e-02</_>
    <_>
      1.57894734e-02 3.24561410e-02 3.42105255e-02 1.57894734e-02
      1.97368432e-02 2.41228081e-02 7.01754401e-03 2.41228081e-02
      3.20175439e-02 4.34210524e-02 7.45614059e-03 3.28947380e-02
      3.64035107e-02 5.04385978e-02 3.90350893e-02 8.77192989e-03
      2.23684218e-02 3.68421078e-02 7.28070214e-02 2.50000004e-02
      6.22807033e-02 2.06140354e-02 2.36842111e-02 3.77192982e-02
      2.76315790e-02 3.24561410e-02 5.70175471e-03 1.57894734e-02
      1.40350880e-02 1.66666675e-02 2.10526325e-02 1.18421055e-02
      3.68421078e-02 2.45614033e-02 1.79824568e-02 2.67543867e-02
      2.36842111e-02</_>
    <_>
      1.60692204e-02 2.30737533e-02 2.61021823e-01 3.66707854e-02
      1.81293786e-02 1.66872684e-02 5.35640679e-03 1.19489077e-02
      7.62257911e-03 1.07128136e-02 8.24062619e-04 4.77956310e-02
      2.32797693e-02 1.29789859e-02 8.19942281e-02 1.44210961e-02
      2.32797693e-02 1.46271111e-02 6.59250095e-03 1.48331271e-02
      7.41656357e-03 1.33910179e-02 7.93160275e-02 0. 1.85414087e-02
      1.44210961e-02 3.50226602e-03 2.67820340e-03 2.47218795e-02
      2.26617232e-03 1.56571902e-02 1.60692204e-02 4.63535227e-02
      7.82859512e-03 1.81293786e-02 2.59579718e-02 5.58302440e-02</_>
    <_>
      2.74277255e-02 1.26019279e-02 1.45292819e-01 2.37212759e-02
      2.29799859e-02 1.55670876e-02 2.81690154e-02 1.33432178e-02
      5.93031906e-02 2.22386960e-02 4.44773911e-03 5.93031906e-02
      2.89103054e-02 6.59748018e-02 3.85470726e-02 8.89547821e-03
      2.29799859e-02 5.93031896e-03 5.93031896e-03 1.26019279e-02
      3.70644941e-03 2.22386960e-02 3.85470726e-02 2.22386955e-03
      1.33432178e-02 1.18606379e-02 5.18902903e-03 1.03780581e-02
      1.85322464e-02 1.77909564e-02 2.52038557e-02 1.63083766e-02
      7.04225376e-02 1.85322464e-02 2.29799859e-02 3.63232046e-02
      4.22535241e-02</_>
    <_>
      2.03972086e-02 3.16693485e-02 8.58829822e-03 1.61030591e-02
      1.93236712e-02 2.30810512e-02 3.48899625e-02 3.16693485e-02
      1.93236712e-02 5.20665571e-02 1.23456791e-02 1.87869016e-02
      2.52281260e-02 1.07353730e-02 1.28824469e-02 2.20075138e-02
      2.36178208e-02 2.68384311e-02 6.81696162e-02 2.73752008e-02
      3.70370373e-02 2.09339764e-02 1.39559843e-02 5.31400964e-02
      2.14707460e-02 3.43531929e-02 1.07353730e-02 5.68974763e-02
      1.12721417e-02 7.99785256e-02 1.12721417e-02 2.63016634e-02
      3.43531929e-02 2.68384311e-02 1.66398287e-02 2.20075138e-02
      1.77133642e-02</_>
    <_>
      2.22428180e-02 2.31696013e-02 4.07784991e-02 2.68767383e-02
      4.63392027e-02 9.26784053e-03 2.78035216e-02 2.31696013e-02
      7.41427252e-03 3.98517139e-02 1.29749766e-02 4.35588509e-02
      2.50231698e-02 5.56070451e-03 2.40963865e-02 2.40963865e-02
      3.05838734e-02 4.17052843e-02 3.61445770e-02 1.76088978e-02
      3.52177955e-02 2.22428180e-02 3.98517139e-02 1.11214090e-02
      2.87303068e-02 3.89249325e-02 1.39017608e-02 1.66821126e-02
      2.22428180e-02 2.68767383e-02 1.48285450e-02 2.50231698e-02
      4.91195545e-02 2.59499531e-02 2.96570901e-02 3.98517139e-02
      3.15106586e-02</_>
    <_>
      1.65354330e-02 2.51968503e-02 9.60629880e-02 3.38582695e-02
      3.77952754e-02 1.57480314e-02 1.10236220e-02 1.49606299e-02
      1.18110236e-02 1.18110236e-02 1.57480314e-03 5.82677163e-02
      5.43307066e-02 2.12598424e-02 2.75590550e-02 1.96850393e-02
      2.44094487e-02 4.09448817e-02 2.44094487e-02 2.12598424e-02
      2.20472440e-02 3.22834626e-02 5.35433069e-02 0. 3.54330689e-02
      3.62204723e-02 6.29921257e-03 1.57480314e-03 2.75590550e-02
      1.49606299e-02 3.70078757e-02 1.96850393e-02 1.25984251e-02
      1.18110236e-02 4.56692912e-02 3.54330689e-02 3.93700786e-02</_>
    <_>
      6.58472348e-03 4.08252850e-02 2.29148388e-01 2.32660230e-02
      1.93151888e-02 1.71202812e-02 4.38981596e-03 1.00965761e-02
      5.70676057e-03 1.88762080e-02 1.75592629e-03 4.08252850e-02
      2.94117648e-02 1.27304653e-02 7.68217742e-02 1.27304653e-02
      1.79982446e-02 2.19490789e-02 2.72168573e-02 1.84372254e-02
      3.59964892e-02 1.44863920e-02 6.32133484e-02 8.77963146e-04
      1.31694470e-02 2.41439864e-02 2.19490798e-03 1.31694472e-03
      1.97541714e-02 2.10711155e-02 1.18525028e-02 6.14574179e-03
      5.17998263e-02 5.70676057e-03 1.97541714e-02 1.00965761e-02
      6.32133484e-02</_>
    <_>
      3.13406847e-02 2.37957053e-02 7.42890313e-02 2.84387693e-02
      2.32153218e-02 3.77248973e-02 1.39291938e-02 1.27684269e-02
      6.38421346e-03 2.43760888e-02 8.70574545e-03 2.61172373e-02
      2.08937898e-02 1.74114909e-02 4.41091135e-02 1.39291938e-02
      2.37957053e-02 1.62507258e-02 3.07603013e-02 2.55368538e-02
      4.06268127e-02 3.13406847e-02 6.03598393e-02 1.39291938e-02
      2.08937898e-02 2.20545568e-02 1.04468949e-02 1.85722578e-02
      2.03134064e-02 3.65641341e-02 1.97330248e-02 2.08937898e-02
      5.91990724e-02 1.62507258e-02 1.39291938e-02 4.41091135e-02
      4.70110290e-02</_>
    <_>
      3.47284079e-02 2.93855742e-02 1.13535173e-01 3.56188789e-02
      1.06856637e-02 1.20213721e-02 1.64737310e-02 2.93855742e-02
      2.89403386e-02 1.55832600e-02 1.11308992e-02 1.38023160e-02
      3.33926976e-02 3.38379368e-02 4.89759594e-02 7.12377578e-03
      3.33926976e-02 1.29118431e-02 1.55832600e-02 2.09260918e-02
      1.33570796e-02 3.25022265e-02 4.09617126e-02 1.02404281e-02
      3.69545855e-02 1.06856637e-02 1.20213721e-02 9.79519170e-03
      2.67141592e-02 2.62689237e-02 5.47640249e-02 1.24666076e-02
      2.04808563e-02 1.64737310e-02 3.42831723e-02 4.89759594e-02
      3.56188789e-02</_>
    <_>
      7.88643584e-03 3.23343873e-02 3.07570975e-02 2.44479496e-02
      4.73186113e-02 3.39116715e-02 1.34069407e-02 2.28706636e-02
      1.18296528e-02 4.33753952e-02 5.52050490e-03 4.33753952e-02
      3.62776034e-02 7.09779188e-03 1.81388017e-02 1.26182968e-02
      1.34069407e-02 7.01892748e-02 6.46687746e-02 1.10410098e-02
      4.65299711e-02 1.26182968e-02 3.78548913e-02 9.46372282e-03
      3.23343873e-02 6.46687746e-02 9.46372282e-03 7.88643584e-03
      1.57728717e-02 3.31230275e-02 9.46372282e-03 2.20820196e-02
      3.39116715e-02 3.39116715e-02 1.97160896e-02 2.12933756e-02
      3.94321792e-02</_>
    <_>
      8.34724493e-03 2.83806343e-02 1.58597659e-02 2.08681133e-02
      5.50918169e-02 2.75459085e-02 1.83639396e-02 2.17028372e-02
      7.51252053e-03 4.17362265e-02 8.34724493e-03 4.09015007e-02
      3.33889797e-02 2.50417367e-03 1.58597659e-02 1.33555923e-02
      1.50250411e-02 7.34557584e-02 5.84307164e-02 1.91986635e-02
      4.67445739e-02 1.58597659e-02 3.75626050e-02 1.25208674e-02
      4.25709486e-02 6.51085153e-02 9.18196980e-03 1.50250411e-02
      2.33722869e-02 4.00667787e-02 1.50250411e-02 1.83639396e-02
      3.00500821e-02 3.42237055e-02 1.75292157e-02 1.16861435e-02
      3.92320529e-02</_>
    <_>
      3.49514559e-02 2.13592239e-02 1.65048540e-02 3.10679618e-02
      6.79611648e-03 3.00970878e-02 2.91262139e-02 2.03883499e-02
      6.60194159e-02 1.65048540e-02 1.55339809e-02 7.76699046e-03
      1.94174759e-02 9.90291312e-02 4.36893217e-02 4.85436898e-03
      2.52427198e-02 1.65048540e-02 1.35922330e-02 2.91262139e-02
      2.62135919e-02 3.59223299e-02 2.03883499e-02 0. 2.33009718e-02
      8.73786397e-03 2.13592239e-02 9.70873795e-03 2.81553399e-02
      2.03883499e-02 5.43689318e-02 2.91262148e-03 8.54368955e-02
      1.35922330e-02 4.46601957e-02 4.17475738e-02 1.55339809e-02</_>
    <_>
      1.82094090e-02 2.12443098e-02 9.25644934e-02 3.64188179e-02
      2.42792107e-02 1.36570558e-02 6.06980268e-03 7.58725312e-03
      7.58725312e-03 2.12443098e-02 3.03490134e-03 4.70409691e-02
      2.88315620e-02 2.42792107e-02 1.66919567e-02 9.10470448e-03
      1.51745062e-02 2.73141116e-02 1.97268594e-02 7.58725312e-03
      5.46282232e-02 1.06221549e-02 5.00758737e-02 6.06980249e-02
      1.97268594e-02 3.18664648e-02 1.51745067e-03 5.15933223e-02
      1.97268594e-02 9.10470448e-03 3.64188179e-02 2.12443098e-02
      7.43550807e-02 9.10470448e-03 3.33839133e-02 1.36570558e-02
      5.46282232e-02</_>
    <_>
      2.08131652e-02 3.09777353e-02 1.08906098e-01 3.29138450e-02
      7.74443382e-03 1.88770574e-02 2.12971922e-02 3.77541147e-02
      3.00096814e-02 6.77637942e-03 1.45208137e-03 2.22652480e-02
      4.50145230e-02 3.92061956e-02 6.63117170e-02 8.22846126e-03
      2.42013559e-02 1.40367867e-02 2.17812210e-02 2.85576005e-02
      4.84027108e-03 2.42013559e-02 3.58180068e-02 1.45208137e-02
      4.16263305e-02 8.22846126e-03 4.35624411e-03 1.79090034e-02
      3.63020338e-02 3.72700877e-02 4.01742496e-02 9.19651520e-03
      1.98451113e-02 1.54888676e-02 3.77541147e-02 3.82381417e-02
      2.71055177e-02</_>
    <_>
      3.07692327e-02 2.82051284e-02 5.12820520e-02 3.58974375e-02
      2.82051284e-02 8.97435937e-03 3.84615399e-02 6.41025649e-03
      1.92307699e-02 2.82051284e-02 1.02564106e-02 4.48717959e-02
      3.46153863e-02 1.41025642e-02 4.23076935e-02 2.30769236e-02
      3.46153863e-02 2.94871796e-02 1.15384618e-02 2.05128212e-02
      2.30769236e-02 3.20512839e-02 3.97435911e-02 3.84615408e-03
      2.82051284e-02 3.07692327e-02 1.02564106e-02 6.41025649e-03
      4.10256423e-02 2.43589748e-02 3.84615399e-02 2.94871796e-02
      2.94871796e-02 1.28205130e-02 4.87179495e-02 2.56410260e-02
      3.46153863e-02</_>
    <_>
      2.63705757e-02 2.42886879e-02 1.45732127e-02 1.73490625e-02
      1.66551005e-02 3.26162390e-02 4.99652997e-02 1.45732127e-02
      2.35947259e-02 3.95558625e-02 1.31852878e-02 1.38792498e-02
      1.04094371e-02 3.40041630e-02 5.69049269e-02 8.32755025e-03
      1.66551005e-02 1.66551005e-02 2.84524634e-02 3.33102010e-02
      3.60860489e-02 2.15128381e-02 3.40041630e-02 3.12283132e-02
      8.32755025e-03 1.11034000e-02 2.29007620e-02 4.78834137e-02
      1.24913249e-02 3.46981250e-02 1.17973629e-02 1.11034000e-02
      9.36849341e-02 3.95558625e-02 1.52671747e-02 4.02498245e-02
      3.67800109e-02</_>
    <_>
      3.81179266e-02 1.42942220e-02 1.02441929e-01 4.28826660e-02
      7.14711100e-03 2.79928520e-02 3.93091105e-02 2.08457410e-02
      3.93091105e-02 8.33829679e-03 7.74270389e-03 1.66765936e-02
      4.22870740e-02 4.58606295e-02 2.79928520e-02 2.14413330e-02
      2.79928520e-02 1.07206665e-02 5.36033325e-03 2.20369268e-02
      9.52948164e-03 4.52650376e-02 1.78677775e-02 8.33829679e-03
      3.03752236e-02 1.01250745e-02 1.07206665e-02 3.03752236e-02
      2.38237046e-02 1.42942220e-02 2.68016662e-02 2.68016662e-02
      2.26325188e-02 1.90589633e-02 3.21619995e-02 7.86182210e-02
      2.44192965e-02</_>
    <_>
      6.65926747e-03 4.32852395e-02 3.71809117e-02 1.27635961e-02
      6.43729195e-02 3.38512771e-02 1.27635961e-02 6.65926747e-03
      1.16537185e-02 5.93784712e-02 7.21420674e-03 5.16093262e-02
      1.49833523e-02 7.21420674e-03 2.77469493e-02 1.55382911e-02
      1.33185349e-02 3.60710323e-02 4.38401774e-02 2.66370699e-02
      6.49278611e-02 9.43396240e-03 5.71587160e-02 1.88679248e-02
      1.66481696e-02 5.49389571e-02 8.87902360e-03 1.27635961e-02
      1.27635961e-02 2.60821320e-02 9.43396240e-03 1.88679248e-02
      5.16093262e-02 2.38623768e-02 1.22086573e-02 9.98890121e-03
      5.88235296e-02</_>
    <_>
      8.74635577e-03 2.62390673e-02 5.83090400e-03 1.16618080e-02
      5.39358631e-02 3.20699736e-02 2.33236160e-02 5.83090400e-03
      7.28863012e-03 4.66472320e-02 5.83090400e-03 3.49854231e-02
      3.35276984e-02 1.16618080e-02 7.28863012e-03 2.33236160e-02
      1.31195337e-02 3.64431515e-02 3.93586010e-02 2.18658894e-02
      5.10204099e-02 1.02040824e-02 4.51895073e-02 4.37317789e-02
      1.60349868e-02 4.08163294e-02 5.83090400e-03 5.97667657e-02
      2.33236160e-02 2.91545205e-02 1.60349868e-02 3.20699736e-02
      6.41399473e-02 3.64431515e-02 1.60349868e-02 2.47813426e-02
      3.64431515e-02</_>
    <_>
      2.85714287e-02 9.09090880e-03 1.59740254e-01 4.54545431e-02
      2.07792204e-02 2.20779218e-02 2.72727273e-02 1.42857144e-02
      1.03896102e-02 2.20779218e-02 2.59740255e-03 2.85714287e-02
      3.50649357e-02 3.11688296e-02 3.63636352e-02 1.68831162e-02
      2.72727273e-02 2.20779218e-02 9.09090880e-03 3.37662324e-02
      2.33766232e-02 2.72727273e-02 2.59740259e-02 9.09090880e-03
      2.85714287e-02 1.55844148e-02 6.49350649e-03 3.24675329e-02
      2.20779218e-02 1.94805190e-02 2.98701301e-02 1.42857144e-02
      3.37662324e-02 2.07792204e-02 2.72727273e-02 4.02597412e-02
      2.07792204e-02</_>
    <_>
      6.82634711e-02 2.15568859e-02 4.67065871e-02 3.59281451e-02
      9.58083849e-03 1.55688627e-02 5.86826354e-02 1.31736528e-02
      5.74850291e-02 7.18562864e-03 2.51497012e-02 2.15568859e-02
      2.51497012e-02 8.02395195e-02 1.79640725e-02 5.98802418e-03
      2.75449101e-02 1.43712573e-02 7.18562864e-03 2.63473056e-02
      5.98802418e-03 4.67065871e-02 1.19760484e-02 1.19760481e-03
      3.83233540e-02 1.07784430e-02 1.55688627e-02 2.51497012e-02
      2.03592815e-02 1.79640725e-02 6.58682659e-02 5.98802418e-03
      2.39520967e-02 8.38323403e-03 5.02994023e-02 5.86826354e-02
      7.18562864e-03</_>
    <_>
      2.51466893e-02 2.17937976e-02 1.47527248e-01 4.69404869e-02
      5.86756086e-03 1.17351217e-02 1.50880134e-02 3.18524726e-02
      4.77787107e-02 4.19111503e-03 1.17351217e-02 2.09555738e-02
      4.35875952e-02 9.63956416e-02 5.19698225e-02 6.70578377e-03
      1.50880134e-02 1.08968988e-02 9.22045298e-03 6.70578377e-03
      3.35289189e-03 3.60435881e-02 2.34702434e-02 0. 3.10142506e-02
      8.38222972e-04 1.17351217e-02 3.35289189e-03 3.43671404e-02
      2.17937976e-02 4.86169308e-02 1.67644601e-02 2.01173518e-02
      1.34115675e-02 4.77787107e-02 3.43671404e-02 2.17937976e-02</_>
    <_>
      2.80898884e-02 1.59176029e-02 5.52434474e-02 3.08988765e-02
      4.68164794e-02 2.62172297e-02 2.43445691e-02 4.68164776e-03
      1.87265920e-03 4.49438207e-02 1.49812736e-02 3.93258445e-02
      2.05992516e-02 1.31086148e-02 1.49812736e-02 3.46441939e-02
      2.43445691e-02 1.40449442e-02 2.43445691e-02 6.55430742e-03
      4.21348326e-02 2.15355810e-02 4.30711620e-02 5.43071181e-02
      1.21722845e-02 4.11985032e-02 2.24719103e-02 4.68164776e-03
      2.52808984e-02 1.21722845e-02 1.77902617e-02 1.87265910e-02
      7.95880184e-02 2.62172297e-02 2.52808984e-02 1.49812736e-02
      5.24344593e-02</_>
    <_>
      2.20385678e-02 2.06611566e-02 2.06611566e-02 2.47933883e-02
      6.19834736e-02 1.65289268e-02 4.95867766e-02 2.75482098e-03
      8.26446339e-03 3.16804424e-02 1.79063361e-02 7.98898116e-02
      2.75482088e-02 2.47933883e-02 2.06611566e-02 1.51515156e-02
      2.06611566e-02 4.82093655e-02 2.75482088e-02 2.06611566e-02
      2.75482088e-02 1.65289268e-02 3.44352610e-02 2.75482098e-03
      1.23966942e-02 1.65289268e-02 1.79063361e-02 1.92837473e-02
      1.51515156e-02 4.13223170e-03 3.30578536e-02 5.23415990e-02
      5.64738289e-02 3.30578536e-02 2.06611566e-02 3.85674946e-02
      3.71900834e-02</_>
    <_>
      2.35378034e-02 1.78316701e-02 1.82952926e-01 3.92296724e-02
      1.56918690e-02 1.06990021e-02 8.91583506e-03 2.38944367e-02
      2.56776046e-02 2.85306713e-03 2.13980023e-03 2.53209714e-02
      4.70756069e-02 5.74179776e-02 5.95577769e-02 1.31954355e-02
      3.49500738e-02 1.39087019e-02 3.20970058e-03 1.78316701e-02
      4.99286735e-03 2.85306722e-02 4.95720431e-02 0. 2.92439386e-02
      1.21255349e-02 4.99286735e-03 1.06990011e-03 3.20970044e-02
      5.34950104e-03 3.99429388e-02 1.10556353e-02 1.81883033e-02
      1.35520687e-02 4.24393751e-02 4.45791744e-02 3.63766067e-02</_>
    <_>
      1.87469162e-02 2.12136153e-02 1.48001974e-02 2.22002957e-02
      4.98273298e-02 1.82535760e-02 2.56536752e-02 9.86679830e-03
      2.41736546e-02 5.37740476e-02 7.89343845e-03 5.22940308e-02
      3.45337950e-02 2.12136153e-02 2.17069555e-02 2.22002957e-02
      1.87469162e-02 4.88406494e-02 3.00937332e-02 2.56536752e-02
      3.89738530e-02 1.72668975e-02 2.31869761e-02 3.15737538e-02
      3.05870734e-02 5.13073504e-02 6.90675853e-03 2.91070547e-02
      2.51603350e-02 4.24272306e-02 1.67735573e-02 1.87469162e-02
      3.79871726e-02 2.46669948e-02 1.23334974e-02 2.22002957e-02
      2.91070547e-02</_>
    <_>
      2.17228457e-02 1.87265910e-02 1.85767800e-01 3.44569311e-02
      2.09737830e-02 1.57303363e-02 7.49063678e-03 1.87265910e-02
      2.24719103e-03 1.72284655e-02 3.74531839e-03 4.11985032e-02
      4.04494405e-02 7.49063678e-03 4.11985032e-02 1.27340825e-02
      2.77153552e-02 1.49812736e-02 9.73782782e-03 6.74157310e-03
      2.02247202e-02 2.77153552e-02 4.64419499e-02 0. 3.52059938e-02
      2.17228457e-02 2.24719103e-03 2.99625471e-03 2.39700377e-02
      5.24344575e-03 1.19850188e-02 4.64419499e-02 5.69288395e-02
      1.19850188e-02 2.17228457e-02 7.86516890e-02 3.74531820e-02</_>
    <_>
      3.21888402e-02 8.58369097e-03 1.15879826e-01 6.65236041e-02
      2.78969966e-02 1.28755365e-02 3.00429184e-02 1.50214592e-02
      5.15021458e-02 2.14592274e-03 4.72102985e-02 1.50214592e-02
      2.78969966e-02 1.50214592e-02 6.43776823e-03 2.36051492e-02
      2.36051492e-02 1.93133056e-02 2.36051492e-02 2.14592274e-03 0.
      2.78969966e-02 1.71673819e-02 6.43776823e-03 3.43347639e-02
      1.71673819e-02 2.36051492e-02 1.93133056e-02 2.14592274e-02
      6.43776823e-03 8.15450624e-02 3.64806876e-02 6.43776823e-03
      1.07296137e-02 4.50643785e-02 6.22317605e-02 1.71673819e-02</_>
    <_>
      3.76623385e-02 1.55844148e-02 6.36363626e-02 6.62337616e-02
      1.16883116e-02 3.89610371e-03 1.42857144e-02 1.16883116e-02
      2.33766232e-02 2.72727273e-02 2.46753246e-02 3.76623385e-02
      3.50649357e-02 1.94805190e-02 4.02597412e-02 3.89610371e-03
      4.15584408e-02 2.07792204e-02 4.15584408e-02 6.49350649e-03
      6.49350649e-03 5.32467514e-02 3.37662324e-02 1.29870127e-03
      2.72727273e-02 1.55844148e-02 3.11688296e-02 5.19480510e-03
      1.68831162e-02 1.03896102e-02 6.10389598e-02 1.55844148e-02
      1.16883116e-02 1.42857144e-02 7.79220760e-02 3.11688296e-02
      4.02597412e-02</_>
    <_>
      3.84858027e-02 2.01892741e-02 9.14826468e-02 3.40694003e-02
      1.07255522e-02 7.57097779e-03 7.57097779e-03 2.39747632e-02
      5.29968441e-02 4.41640383e-03 6.94006309e-03 2.14511044e-02
      5.67823350e-02 5.36277592e-02 3.97476330e-02 1.13564664e-02
      3.21766548e-02 1.07255522e-02 4.41640383e-03 2.20820177e-02
      5.04731853e-03 4.22712937e-02 2.46056784e-02 2.52365926e-03
      4.73186113e-02 1.19873816e-02 8.20189249e-03 1.89274445e-03
      5.11040986e-02 1.76656153e-02 6.30914792e-02 2.46056784e-02
      1.38801262e-02 7.57097779e-03 5.42586744e-02 5.61514199e-02
      1.70347001e-02</_>
    <_>
      3.26876529e-02 1.08958846e-02 1.69491526e-02 2.78450381e-02
      4.96368073e-02 1.33171920e-02 2.78450381e-02 8.47457629e-03
      2.78450381e-02 9.68523044e-03 2.17917692e-02 4.11622301e-02
      4.23728824e-02 2.05811150e-02 2.17917692e-02 2.17917692e-02
      1.93704609e-02 5.08474596e-02 2.05811150e-02 1.08958846e-02
      2.66343839e-02 3.99515741e-02 3.38983051e-02 3.63196153e-03
      4.11622301e-02 3.75302695e-02 2.66343839e-02 2.05811150e-02
      8.47457629e-03 8.47457629e-03 4.96368073e-02 2.42130756e-02
      4.23728824e-02 2.30024215e-02 3.38983051e-02 4.96368073e-02
      3.38983051e-02</_>
    <_>
      3.03030293e-02 6.73400657e-03 1.12794608e-01 6.56565651e-02
      1.34680131e-02 5.05050505e-03 2.02020202e-02 3.36700329e-03
      3.03030293e-02 0. 1.51515147e-02 3.70370373e-02 3.70370373e-02
      4.54545431e-02 2.18855217e-02 1.01010101e-02 3.19865309e-02
      1.01010101e-02 1.68350164e-03 1.34680131e-02 0. 4.54545431e-02
      4.54545431e-02 1.02693602e-01 5.05050495e-02 1.34680131e-02
      1.01010101e-02 3.36700329e-03 2.52525248e-02 1.68350164e-03
      4.20875400e-02 1.01010101e-02 2.52525248e-02 6.73400657e-03
      6.22895621e-02 1.68350171e-02 2.69360263e-02</_>
    <_>
      4.08163257e-02 1.81405898e-02 8.16326514e-02 5.44217676e-02
      1.81405898e-02 1.13378689e-02 2.49433108e-02 4.53514745e-03
      1.81405898e-02 9.07029491e-03 2.26757377e-02 1.58730168e-02
      1.81405898e-02 4.98866215e-02 2.04081628e-02 1.13378689e-02
      2.04081628e-02 1.36054419e-02 0. 9.07029491e-03 2.26757373e-03
      6.80272132e-02 1.81405898e-02 7.70975053e-02 4.76190485e-02
      1.58730168e-02 2.72108838e-02 9.07029491e-03 5.21541946e-02 0.
      6.34920672e-02 2.72108838e-02 0. 2.04081628e-02 5.66893443e-02
      3.40136066e-02 1.81405898e-02</_>
    <_>
      2.56709456e-02 1.16686113e-02 3.96732800e-02 2.56709456e-02
      2.91715283e-02 5.83430566e-03 5.36756143e-02 1.05017507e-02
      6.18436411e-02 1.51691949e-02 1.51691949e-02 2.68378071e-02
      2.45040841e-02 5.83430566e-02 2.45040841e-02 2.56709456e-02
      3.50058340e-02 2.33372226e-02 1.63360555e-02 1.16686113e-02
      8.16802774e-03 2.68378071e-02 1.63360555e-02 6.53442219e-02
      2.45040841e-02 2.80046687e-02 2.10035015e-02 2.33372226e-02
      4.43407223e-02 5.83430566e-03 4.55075838e-02 2.91715283e-02
      1.63360555e-02 2.21703611e-02 2.68378071e-02 4.08401415e-02
      1.51691949e-02</_>
    <_>
      1.03626940e-02 1.42487045e-02 1.65803105e-01 5.82901537e-02
      3.75647657e-02 5.18134702e-03 1.68393776e-02 6.47668354e-03
      9.06735752e-03 1.16580306e-02 1.29533671e-02 4.14507762e-02
      3.88601013e-02 1.29533671e-02 1.81347150e-02 2.07253881e-02
      9.06735752e-03 3.23834196e-02 1.16580306e-02 9.06735752e-03
      1.42487045e-02 1.55440411e-02 4.01554406e-02 9.06735733e-02
      2.84974091e-02 2.97927447e-02 9.06735752e-03 6.47668354e-03
      4.14507762e-02 2.59067351e-03 2.72020716e-02 1.55440411e-02
      4.27461118e-02 1.16580306e-02 3.49740908e-02 1.55440411e-02
      3.10880821e-02</_>
    <_>
      2.59259250e-02 1.29629625e-02 5.55555560e-02 1.66666657e-02
      1.66666657e-02 5.55555522e-03 2.03703698e-02 1.29629625e-02
      5.92592582e-02 9.25925933e-03 2.22222209e-02 2.96296291e-02
      7.40740728e-03 7.77777731e-02 3.70370373e-02 1.85185182e-03
      2.03703698e-02 1.29629625e-02 7.40740728e-03 1.48148146e-02
      3.70370364e-03 3.51851843e-02 1.48148146e-02 1.46296293e-01
      9.25925933e-03 1.48148146e-02 3.51851843e-02 1.85185187e-02
      1.85185187e-02 1.29629625e-02 4.62962948e-02 2.22222209e-02
      4.07407396e-02 1.48148146e-02 4.81481478e-02 2.22222209e-02
      2.96296291e-02</_>
    <_>
      2.20440887e-02 4.00801608e-03 5.21042086e-02 1.40280565e-02
      2.60521043e-02 5.81162348e-02 5.81162348e-02 4.00801608e-03
      8.01603217e-03 2.80561130e-02 5.01001999e-02 1.80360731e-02
      1.60320643e-02 2.80561130e-02 2.00400800e-02 1.40280565e-02
      2.00400804e-03 4.00801608e-03 8.01603217e-03 3.40681374e-02
      2.00400800e-02 2.00400800e-02 2.00400800e-02 1.82364732e-01
      2.00400800e-02 1.20240487e-02 3.60721461e-02 2.40480974e-02
      8.01603217e-03 1.00200400e-02 1.20240487e-02 2.80561130e-02
      2.60521043e-02 5.21042086e-02 1.60320643e-02 2.40480974e-02
      2.00400800e-02</_>
    <_>
      2.88557224e-02 1.79104488e-02 9.95024890e-02 4.67661731e-02
      1.29353236e-02 1.39303487e-02 4.67661731e-02 1.89054739e-02
      9.95024946e-03 1.69154238e-02 1.89054739e-02 1.49253737e-02
      4.67661731e-02 2.58706473e-02 3.98009978e-02 2.08955240e-02
      2.18905490e-02 9.95024946e-03 1.09452745e-02 9.95024946e-03
      1.49253737e-02 3.58208977e-02 1.49253737e-02 4.07960229e-02
      5.07462695e-02 1.19402986e-02 1.49253737e-02 1.29353236e-02
      4.57711481e-02 3.98009969e-03 5.07462695e-02 2.08955240e-02
      2.48756222e-02 1.79104488e-02 4.07960229e-02 4.27860729e-02
      2.28855740e-02</_>
    <_>
      1.04438644e-02 2.61096610e-03 3.15926909e-01 7.31070489e-02 0.
      1.04438644e-02 5.22193220e-03 2.61096610e-03 7.83289783e-03 0.
      1.56657957e-02 5.22193220e-03 4.17754576e-02 4.96083573e-02
      1.04438644e-02 1.04438644e-02 7.83289783e-03 5.22193220e-03 0.
      2.61096610e-03 0. 2.08877288e-02 3.91644910e-02 8.61618817e-02
      5.22193238e-02 2.61096610e-03 1.56657957e-02 2.61096610e-03
      3.65535244e-02 0. 5.74412532e-02 1.30548310e-02 5.22193220e-03
      2.61096610e-03 3.65535244e-02 2.61096619e-02 2.61096619e-02</_>
    <_>
      5.05747125e-02 1.83908045e-02 2.06896551e-02 5.51724136e-02
      3.21839079e-02 2.75862068e-02 5.28735630e-02 2.29885057e-03
      1.14942528e-02 4.59770113e-03 1.83908045e-02 3.44827585e-02
      2.52873562e-02 3.67816091e-02 1.60919540e-02 2.06896551e-02
      3.44827585e-02 9.19540226e-03 1.37931034e-02 4.59770113e-03
      6.89655170e-03 4.82758619e-02 2.29885057e-02 6.43678159e-02
      2.52873562e-02 1.60919540e-02 2.52873562e-02 1.37931034e-02
      5.97701147e-02 0. 3.90804596e-02 3.44827585e-02 2.06896551e-02
      4.13793102e-02 3.67816091e-02 3.90804596e-02 1.60919540e-02</_>
    <_>
      2.64672041e-02 3.45224403e-02 7.94016123e-02 1.38089759e-02
      6.90448796e-03 2.07134634e-02 3.91254313e-02 4.60299198e-03
      6.78941309e-02 2.30149589e-02 1.15074795e-02 2.18642112e-02
      2.53164563e-02 4.60299179e-02 1.15074795e-02 1.26582282e-02
      2.18642112e-02 1.03567317e-02 1.72612201e-02 2.07134634e-02
      2.30149589e-02 3.33716907e-02 2.18642112e-02 1.08170308e-01
      2.41657086e-02 1.61104724e-02 1.84119679e-02 1.38089759e-02
      2.07134634e-02 1.95627157e-02 2.99194474e-02 1.15074795e-02
      2.18642112e-02 2.30149589e-02 4.14269269e-02 3.68239358e-02
      2.07134634e-02</_>
    <_>
      2.35294122e-02 9.04977415e-03 2.47963801e-01 4.34389152e-02
      9.04977380e-04 1.35746608e-02 6.24434389e-02 8.14479683e-03
      1.80995483e-02 3.61990952e-03 5.42986440e-03 7.23981904e-03
      1.90045256e-02 3.34841646e-02 2.26244349e-02 1.26696834e-02
      2.80542988e-02 2.71493220e-03 0. 1.17647061e-02 7.23981904e-03
      4.25339378e-02 2.62443442e-02 1.62895937e-02 4.25339378e-02
      1.80995476e-03 5.42986440e-03 1.35746608e-02 3.80090512e-02
      9.04977380e-04 3.80090512e-02 1.99095029e-02 4.34389152e-02
      2.71493220e-03 5.24886884e-02 4.25339378e-02 3.25791873e-02</_>
    <_>
      4.85294126e-02 7.35294120e-03 7.64705911e-02 3.08823530e-02
      2.05882359e-02 2.94117653e-03 3.67647074e-02 4.41176491e-03
      2.79411767e-02 0. 1.17647061e-02 4.26470600e-02 2.35294122e-02
      5.14705889e-02 3.82352956e-02 1.76470596e-02 3.97058837e-02
      1.47058824e-02 5.88235306e-03 1.47058824e-02 0. 5.73529415e-02
      3.23529430e-02 7.50000030e-02 2.50000004e-02 1.02941180e-02
      1.61764715e-02 2.94117653e-03 4.41176482e-02 1.17647061e-02
      5.58823533e-02 8.82352982e-03 1.02941180e-02 1.17647061e-02
      6.32352978e-02 3.97058837e-02 1.91176478e-02</_>
    <_>
      2.83687934e-02 1.56028364e-02 4.39716280e-02 1.56028364e-02
      3.97163108e-02 1.27659570e-02 7.23404214e-02 1.41843967e-02
      4.53900695e-02 1.27659570e-02 1.27659570e-02 2.97872331e-02
      2.26950347e-02 8.36879387e-02 3.26241106e-02 1.41843967e-02
      4.11347523e-02 1.56028364e-02 8.51063803e-03 1.27659570e-02
      2.83687934e-03 3.12056728e-02 2.83687934e-02 2.26950347e-02
      3.97163108e-02 2.41134744e-02 1.98581554e-02 7.09219836e-03
      2.83687934e-02 7.09219836e-03 4.82269488e-02 2.69503538e-02
      1.98581554e-02 1.41843967e-02 4.11347523e-02 4.68085110e-02
      1.70212761e-02</_>
    <_>
      2.90135406e-02 1.74081251e-02 6.18955530e-02 3.28820124e-02
      2.32108328e-02 9.67118051e-03 3.86847220e-02 1.35396523e-02
      3.67504843e-02 3.09477765e-02 1.74081251e-02 4.06189561e-02
      2.90135406e-02 3.28820124e-02 3.28820124e-02 9.67118051e-03
      3.09477765e-02 3.09477765e-02 7.73694413e-03 1.16054164e-02
      2.12765969e-02 2.51450688e-02 5.41586094e-02 1.54738883e-02
      1.16054164e-02 1.54738883e-02 3.09477765e-02 5.80270821e-03
      2.51450688e-02 1.74081251e-02 2.90135406e-02 1.74081251e-02
      4.25531939e-02 9.67118051e-03 2.32108328e-02 6.96325004e-02
      4.83558998e-02</_>
    <_>
      3.27380970e-02 8.92857183e-03 4.31547612e-02 2.67857146e-02
      1.78571437e-02 1.04166670e-02 2.97619049e-02 4.46428591e-03
      5.05952388e-02 2.97619053e-03 1.63690485e-02 2.52976194e-02
      2.23214291e-02 1.02678575e-01 2.97619049e-02 3.12500000e-02
      1.48809524e-02 1.93452388e-02 8.92857183e-03 1.63690485e-02 0.
      4.76190485e-02 2.67857146e-02 1.25000000e-01 1.93452388e-02
      1.33928573e-02 1.63690485e-02 1.33928573e-02 1.78571437e-02
      8.92857183e-03 4.46428582e-02 1.33928573e-02 3.27380970e-02
      2.08333340e-02 4.31547612e-02 2.67857146e-02 1.48809524e-02</_>
    <_>
      2.53807101e-02 1.52284261e-02 5.92216551e-02 2.19966155e-02
      1.69204734e-02 1.69204734e-02 4.73773256e-02 3.38409469e-03
      5.41455150e-02 5.07614203e-03 1.69204734e-02 3.21488976e-02
      1.52284261e-02 7.61421323e-02 3.72250415e-02 8.46023671e-03
      2.87648048e-02 8.46023671e-03 3.38409469e-03 1.35363787e-02
      1.69204734e-03 2.19966155e-02 2.19966155e-02 1.42131984e-01
      1.86125208e-02 8.46023671e-03 2.87648048e-02 1.18443314e-02
      1.69204734e-02 1.01522841e-02 4.90693748e-02 1.52284261e-02
      3.38409469e-02 1.18443314e-02 5.07614203e-02 2.53807101e-02
      2.53807101e-02</_>
    <_>
      3.05188205e-02 6.10376429e-03 2.74669379e-01 5.18819951e-02
      2.03458797e-02 4.06917604e-03 1.32248225e-02 1.72939990e-02
      7.12105818e-03 6.10376429e-03 1.62767041e-02 2.84842327e-02
      3.76398787e-02 2.03458797e-02 2.03458797e-02 2.03458797e-02
      2.64496449e-02 1.52594103e-02 5.08646993e-03 1.22075286e-02
      5.08646993e-03 4.67955247e-02 4.37436439e-02 8.13835207e-03
      2.74669379e-02 2.44150572e-02 1.01729399e-02 3.05188214e-03
      2.13631745e-02 2.03458802e-03 2.54323501e-02 2.33977623e-02
      1.32248225e-02 4.06917604e-03 1.62767041e-02 5.39165810e-02
      3.76398787e-02</_>
    <_>
      2.14408245e-02 7.71869672e-03 2.86449403e-01 2.40137223e-02
      4.28816490e-03 3.43053183e-03 6.00343058e-03 1.71526596e-02
      8.57632956e-04 8.57632956e-04 8.57632980e-03 1.54373934e-02
      3.77358496e-02 3.51629518e-02 5.83190396e-02 3.43053183e-03
      1.71526596e-02 4.28816490e-03 8.57632956e-04 4.28816490e-03
      2.57289875e-03 5.66037744e-02 5.57461418e-02 5.91766723e-02
      4.71698120e-02 2.57289875e-03 1.02915950e-02 1.71526591e-03
      2.74442546e-02 1.71526591e-03 3.25900540e-02 9.43396240e-03
      3.85934822e-02 0. 3.25900540e-02 2.57289894e-02 3.85934822e-02</_>
    <_>
      2.94695497e-02 1.86640471e-02 2.22003937e-01 2.94695497e-02
      8.84086452e-03 1.47347748e-02 3.04518677e-02 2.16110032e-02
      1.17878197e-02 2.94695492e-03 1.47347748e-02 2.94695497e-02
      3.24165039e-02 3.14341858e-02 3.14341858e-02 7.85854645e-03
      1.96463652e-02 4.91159130e-03 1.96463661e-03 8.84086452e-03
      9.82318306e-04 4.61689606e-02 2.84872316e-02 6.28683716e-02
      4.02750522e-02 8.84086452e-03 1.37524568e-02 1.76817290e-02
      2.94695497e-02 1.96463661e-03 3.04518677e-02 1.86640471e-02
      1.47347748e-02 3.92927323e-03 3.33988219e-02 5.00982329e-02
      2.55402755e-02</_>
    <_>
      1.69491526e-02 1.12994350e-02 3.67231630e-02 2.82485876e-03
      2.82485876e-02 5.93220331e-02 5.64971752e-02 2.54237279e-02
      5.64971752e-03 2.82485876e-02 2.54237279e-02 1.69491526e-02
      1.12994350e-02 1.12994350e-02 1.97740123e-02 1.69491526e-02
      2.25988701e-02 2.25988701e-02 5.36723174e-02 3.10734473e-02
      2.54237279e-02 2.25988701e-02 3.10734473e-02 6.77966103e-02
      1.41242938e-02 2.54237279e-02 3.10734473e-02 5.93220331e-02
      2.54237279e-02 1.69491526e-02 1.12994350e-02 8.47457629e-03
      6.77966103e-02 3.38983051e-02 1.97740123e-02 1.12994350e-02
      2.54237279e-02</_>
    <_>
      1.54738883e-02 9.67118051e-03 9.67117995e-02 6.57640249e-02
      2.32108328e-02 3.86847206e-03 3.48162502e-02 1.16054164e-02
      1.93423603e-03 2.12765969e-02 1.16054164e-02 3.09477765e-02
      2.51450688e-02 2.12765969e-02 3.67504843e-02 1.35396523e-02
      3.09477765e-02 1.16054164e-02 1.54738883e-02 7.73694413e-03
      5.80270821e-03 3.09477765e-02 3.09477765e-02 1.10251456e-01
      9.67118051e-03 2.32108328e-02 1.74081251e-02 1.16054164e-02
      2.32108328e-02 7.73694413e-03 7.15667307e-02 1.74081251e-02
      1.93423610e-02 2.70793047e-02 4.64216657e-02 2.90135406e-02
      2.90135406e-02</_>
    <_>
      1.08108111e-02 2.70270277e-03 2.54054070e-01 5.94594628e-02
      5.40540554e-03 8.10810830e-03 2.70270277e-03 0. 2.70270277e-03
      1.08108111e-02 1.08108111e-02 6.48648664e-02 6.75675720e-02 0.
      2.70270277e-03 1.08108111e-02 2.43243240e-02 1.35135138e-02
      5.40540554e-03 1.35135138e-02 8.10810830e-03 1.08108111e-02
      4.32432443e-02 1.45945951e-01 2.97297314e-02 1.62162166e-02
      1.89189203e-02 8.10810830e-03 1.08108111e-02 0. 1.08108111e-02
      2.43243240e-02 3.24324332e-02 1.08108111e-02 8.10810830e-03
      5.40540554e-03 4.59459461e-02</_>
    <_>
      3.98899578e-02 5.50206332e-03 2.29711145e-01 5.91471791e-02
      8.25309474e-03 6.87757926e-03 5.50206332e-03 2.75103166e-03
      2.61348002e-02 4.12654737e-03 1.23796426e-02 1.92572214e-02
      6.60247579e-02 3.43878940e-02 1.78817064e-02 1.37551585e-02
      3.16368639e-02 4.12654737e-03 0. 4.12654737e-03 5.50206332e-03
      3.43878940e-02 4.12654765e-02 4.26409915e-02 5.91471791e-02
      2.75103166e-03 8.25309474e-03 1.37551583e-03 2.75103170e-02 0.
      3.85144427e-02 1.37551585e-02 2.33837683e-02 2.75103166e-03
      3.30123790e-02 3.71389277e-02 3.71389277e-02</_>
    <_>
      2.80224178e-02 8.00640509e-03 2.10568458e-01 1.76140908e-02
      3.20256199e-03 7.20576430e-03 4.08326648e-02 1.52121698e-02
      4.72377911e-02 1.60128099e-03 1.04083261e-02 1.28102480e-02
      4.00320254e-02 6.88550845e-02 1.76140908e-02 1.44115286e-02
      2.16172934e-02 6.40512398e-03 4.80384286e-03 2.64211372e-02
      1.60128099e-03 2.08166521e-02 1.76140908e-02 9.20736566e-02
      4.80384305e-02 1.28102480e-02 9.60768573e-03 1.92153715e-02
      2.72217765e-02 8.00640509e-03 3.92313860e-02 1.04083261e-02
      9.60768573e-03 1.20096076e-02 3.60288210e-02 2.40192153e-02
      8.80704541e-03</_>
    <_>
      2.79279277e-02 9.90991015e-03 2.10810810e-01 2.52252258e-02
      9.90991015e-03 3.60360369e-03 5.13513535e-02 1.35135138e-02
      5.49549572e-02 9.00900923e-04 1.17117120e-02 1.98198203e-02
      3.60360369e-02 7.92792812e-02 2.25225240e-02 8.10810830e-03
      1.26126129e-02 5.40540554e-03 7.20720738e-03 1.62162166e-02 0.
      2.43243240e-02 2.43243240e-02 8.28828812e-02 3.69369388e-02
      5.40540554e-03 9.90991015e-03 2.25225240e-02 2.07207203e-02
      1.80180185e-03 3.87387387e-02 1.89189203e-02 3.60360369e-03
      7.20720738e-03 4.32432443e-02 2.07207203e-02 1.17117120e-02</_>
    <_>
      4.29184549e-02 1.39484983e-02 1.30901292e-01 6.11587986e-02
      4.29184549e-03 8.58369097e-03 9.65665281e-03 1.71673819e-02
      2.25321893e-02 2.14592274e-03 1.50214592e-02 1.28755365e-02
      4.61373404e-02 3.96995693e-02 1.93133056e-02 2.25321893e-02
      3.00429184e-02 4.29184549e-03 0. 1.28755365e-02 3.21888411e-03
      6.11587986e-02 2.36051492e-02 8.58369097e-02 5.79399131e-02 0.
      1.39484983e-02 1.07296137e-03 3.64806876e-02 1.07296137e-03
      5.15021458e-02 1.50214592e-02 7.51072960e-03 1.07296137e-02
      5.04291840e-02 4.18454930e-02 2.25321893e-02</_>
    <_>
      8.14663991e-03 2.03665998e-02 1.42566204e-01 4.07331996e-02
      8.14663991e-03 3.86965387e-02 6.51731193e-02 1.62932798e-02
      1.62932798e-02 1.01832999e-02 3.05498987e-02 2.64765806e-02
      3.25865597e-02 5.90631403e-02 3.05498987e-02 1.22199599e-02
      2.24032588e-02 8.14663991e-03 5.29531613e-02 1.22199599e-02
      6.10997993e-03 2.44399197e-02 2.03665998e-02 2.24032588e-02
      3.46232206e-02 2.64765806e-02 2.03665998e-02 1.22199599e-02
      2.24032588e-02 8.14663991e-03 2.44399197e-02 1.22199599e-02
      4.68431786e-02 0. 1.42566198e-02 1.83299407e-02 3.25865597e-02</_>
    <_>
      2.70270258e-02 1.83397681e-02 1.57335907e-01 4.05405387e-02
      9.65250935e-03 9.65250935e-03 2.50965245e-02 1.25482623e-02
      3.86100379e-03 1.15830116e-02 1.25482623e-02 2.41312739e-02
      3.18532810e-02 1.25482623e-02 2.70270258e-02 1.35135129e-02
      3.28185335e-02 1.54440152e-02 3.86100379e-03 2.02702694e-02
      1.15830116e-02 2.89575290e-02 6.37065619e-02 8.78378376e-02
      2.99227796e-02 1.73745174e-02 1.06177600e-02 1.35135129e-02
      3.08880303e-02 2.89575290e-03 2.41312739e-02 1.54440152e-02
      2.50965245e-02 1.54440152e-02 2.70270258e-02 3.76447886e-02
      4.82625477e-02</_>
    <_>
      1.50075043e-02 2.20110063e-02 1.23561785e-01 1.60080045e-02
      5.00250142e-03 3.50175090e-02 5.35267666e-02 2.10105069e-02
      1.90095045e-02 1.10055031e-02 1.55077539e-02 1.50075043e-02
      1.60080045e-02 3.30165103e-02 5.15257642e-02 2.25112569e-02
      1.95097551e-02 5.50275156e-03 1.50075043e-02 2.95147579e-02
      1.30065037e-02 1.40070040e-02 4.85242642e-02 7.80390203e-02
      1.05052534e-02 2.50125071e-03 1.60080045e-02 4.40220125e-02
      1.85092557e-02 8.00400227e-03 1.95097551e-02 2.65132580e-02
      3.40170115e-02 2.30115056e-02 2.40120068e-02 4.65232618e-02
      2.90145092e-02</_>
    <_>
      2.36710962e-02 1.57807302e-02 1.11710958e-01 4.19435203e-02
      1.12126246e-02 1.95182711e-02 3.40531543e-02 7.05980044e-03
      1.07973423e-02 9.13621206e-03 6.64451811e-03 2.57475078e-02
      3.44684385e-02 1.20431893e-02 2.78239194e-02 2.36710962e-02
      3.15614603e-02 1.16279069e-02 1.66112948e-02 3.19767445e-02
      4.98338882e-03 2.82392018e-02 4.02823910e-02 8.63787383e-02
      3.69601324e-02 1.37043186e-02 9.13621206e-03 3.44684385e-02
      4.81727570e-02 4.15282371e-03 2.49169432e-02 3.40531543e-02
      7.47508276e-03 2.53322255e-02 2.57475078e-02 4.23588045e-02
      2.65780725e-02</_>
    <_>
      3.49768214e-02 2.44416334e-02 8.34386796e-02 5.47829717e-02
      5.05688973e-03 1.64348911e-02 3.96123044e-02 1.43278548e-02
      1.51706692e-02 1.43278548e-02 2.61272639e-02 1.09565947e-02
      3.24483775e-02 1.55920768e-02 4.38263789e-02 2.14917827e-02
      3.24483775e-02 7.16392742e-03 5.47829736e-03 1.64348911e-02
      9.27096512e-03 5.39401583e-02 3.58196348e-02 7.58533459e-03
      1.89633369e-02 7.16392742e-03 2.48630419e-02 1.26422243e-02
      3.87694873e-02 5.05688973e-03 4.38263789e-02 2.73914859e-02
      2.73914859e-02 1.17994100e-02 5.18331192e-02 6.99536428e-02
      3.91908959e-02</_>
    <_>
      1.61725059e-02 2.56064683e-02 3.01886797e-01 2.42587589e-02
      1.75202154e-02 2.69541773e-03 6.73854444e-03 5.39083546e-03
      1.34770887e-03 2.56064683e-02 1.21293794e-02 2.42587589e-02
      3.90835553e-02 1.34770887e-03 2.83018854e-02 8.08625296e-03
      1.61725059e-02 1.88679248e-02 5.52560650e-02 4.04312648e-03
      4.71698120e-02 1.88679248e-02 2.29110513e-02 4.04312648e-03
      4.31266837e-02 1.61725059e-02 2.42587589e-02 2.69541773e-03
      8.08625296e-03 2.02156324e-02 2.42587589e-02 9.43396240e-03
      4.71698120e-02 4.04312648e-03 1.88679248e-02 3.23450118e-02
      2.15633418e-02</_>
    <_>
      4.72813249e-02 7.09219836e-03 1.45390078e-01 5.20094559e-02
      4.72813239e-03 1.06382975e-02 2.36406624e-02 3.78250591e-02
      1.06382975e-02 4.72813239e-03 1.18203312e-02 8.27423204e-03
      3.07328608e-02 2.12765951e-02 4.13711593e-02 1.18203312e-02
      2.60047279e-02 7.09219836e-03 5.91016561e-03 9.45626479e-03
      9.45626479e-03 5.31914905e-02 2.48226952e-02 4.13711593e-02
      4.96453904e-02 4.72813239e-03 5.91016561e-03 3.54609918e-03
      1.53664304e-02 2.36406620e-03 4.96453904e-02 1.89125296e-02
      5.31914905e-02 3.54609918e-03 3.30969281e-02 7.21040219e-02
      4.13711593e-02</_>
    <_>
      5.37313446e-02 1.89054739e-02 2.68656723e-02 1.99004989e-02
      2.98507465e-03 1.79104488e-02 7.46268705e-02 3.48258726e-02
      4.47761230e-02 3.98009969e-03 2.18905490e-02 4.97512473e-03
      2.18905490e-02 4.37810980e-02 2.18905490e-02 1.19402986e-02
      2.78606974e-02 6.96517434e-03 2.18905490e-02 2.48756222e-02 0.
      3.68159227e-02 1.39303487e-02 2.58706473e-02 2.18905490e-02
      2.98507465e-03 3.98009978e-02 4.27860729e-02 4.57711481e-02
      1.19402986e-02 4.27860729e-02 2.88557224e-02 2.98507465e-03
      1.29353236e-02 3.98009978e-02 1.13432840e-01 1.09452745e-02</_>
    <_>
      3.67647074e-02 2.45098043e-02 6.00490235e-02 2.32843142e-02
      1.59313735e-02 8.57843179e-03 4.77941185e-02 1.47058833e-02
      1.96078438e-02 2.69607846e-02 2.81862747e-02 1.71568636e-02
      2.57352944e-02 1.47058833e-02 1.59313735e-02 1.47058833e-02
      1.83823537e-02 1.34803923e-02 2.20588241e-02 7.35294167e-03
      2.20588241e-02 3.43137272e-02 4.41176482e-02 1.09068632e-01
      3.55392173e-02 8.57843179e-03 3.43137272e-02 2.94117667e-02
      1.22549022e-02 4.04411778e-02 3.30882370e-02 2.69607846e-02
      2.32843142e-02 1.34803923e-02 2.57352944e-02 2.45098043e-02
      2.69607846e-02</_>
    <_>
      2.77200267e-02 1.38600133e-02 1.96812198e-01 3.11850309e-02
      5.54400543e-03 1.73250176e-02 7.69230723e-02 1.17810117e-02
      1.87110174e-02 7.62300752e-03 6.93000667e-03 2.07900200e-02
      3.39570343e-02 4.08870392e-02 4.64310460e-02 1.17810117e-02
      2.28690226e-02 4.85100457e-03 0. 2.91060284e-02 2.77200271e-03
      1.52460150e-02 4.98960502e-02 1.52460150e-02 2.28690226e-02
      9.00900923e-03 8.31600837e-03 1.10880109e-02 4.01940383e-02
      1.38600136e-03 3.04920301e-02 1.17810117e-02 2.56410260e-02
      7.62300752e-03 4.08870392e-02 4.71240468e-02 3.53430361e-02</_>
    <_>
      2.38970593e-02 1.28676472e-02 1.41544119e-01 2.20588241e-02
      7.35294120e-03 2.48161759e-02 5.42279407e-02 1.10294120e-02
      2.48161759e-02 1.37867648e-02 1.28676472e-02 2.20588241e-02
      2.57352944e-02 5.42279407e-02 5.05514704e-02 6.43382361e-03
      1.65441185e-02 1.10294120e-02 2.29779407e-02 3.95220593e-02
      1.47058824e-02 2.48161759e-02 4.13602926e-02 3.12500000e-02
      1.37867648e-02 1.28676472e-02 1.83823537e-02 3.58455889e-02
      2.11397056e-02 1.01102944e-02 2.20588241e-02 3.67647060e-03
      4.13602926e-02 1.28676472e-02 2.29779407e-02 4.04411778e-02
      3.40073518e-02</_>
    <_>
      1.52466362e-02 1.07623320e-02 6.00896850e-02 3.49775776e-02
      2.69058291e-02 2.69058291e-02 3.13901342e-02 1.16591929e-02
      3.76681611e-02 8.96860939e-03 3.40807177e-02 3.22869942e-02
      3.22869942e-02 3.85650210e-02 2.78026890e-02 1.79372188e-02
      2.69058291e-02 2.42152456e-02 7.17488769e-03 2.78026890e-02
      6.27802685e-03 2.42152456e-02 2.33183857e-02 7.35426024e-02
      3.31838541e-02 1.25560537e-02 2.78026890e-02 2.42152456e-02
      2.42152456e-02 6.27802685e-03 3.40807177e-02 2.51121074e-02
      2.15246640e-02 1.97309405e-02 2.51121074e-02 4.75336313e-02
      3.76681611e-02</_>
    <_>
      2.28245370e-02 2.42510699e-02 2.85306713e-03 2.13980041e-02
      7.13266805e-03 1.85449366e-02 3.42368037e-02 1.56918690e-02
      2.42510699e-02 5.13552092e-02 3.28102708e-02 1.56918690e-02
      2.28245370e-02 2.85306722e-02 2.42510699e-02 1.42653361e-02
      2.85306713e-03 8.55920091e-03 3.85164060e-02 3.56633402e-02
      4.85021397e-02 7.13266805e-03 1.85449366e-02 1.48359492e-01
      1.42653361e-02 1.56918690e-02 2.71041375e-02 2.85306722e-02
      1.85449366e-02 6.13409430e-02 1.71184018e-02 1.85449366e-02
      4.56490740e-02 8.55920091e-03 2.71041375e-02 2.56776046e-02
      2.28245370e-02</_>
    <_>
      2.72727273e-02 1.51515147e-02 1.21212117e-02 3.03030293e-02
      2.27272715e-02 2.57575754e-02 6.06060587e-02 9.09090880e-03
      2.27272715e-02 3.18181813e-02 5.15151508e-02 1.51515147e-02
      1.81818176e-02 9.09090880e-03 2.12121196e-02 3.33333313e-02
      2.27272715e-02 1.81818176e-02 2.12121196e-02 2.12121196e-02
      3.33333313e-02 3.93939391e-02 1.81818176e-02 6.06060587e-02
      1.36363637e-02 2.12121196e-02 4.09090891e-02 3.78787853e-02
      2.72727273e-02 7.57575734e-03 4.39393930e-02 3.33333313e-02
      1.81818176e-02 1.81818176e-02 4.39393930e-02 3.48484851e-02
      1.81818176e-02</_>
    <_>
      1.55038759e-03 1.24031007e-02 3.81395340e-01 1.24031007e-02
      1.86046511e-02 1.70542635e-02 1.08527131e-02 0. 0. 1.08527131e-02
      1.08527131e-02 4.18604650e-02 3.87596898e-02 3.10077518e-03
      1.24031007e-02 1.08527131e-02 1.24031007e-02 1.24031007e-02
      2.63565890e-02 7.75193796e-03 2.48062015e-02 7.75193796e-03
      3.72093022e-02 6.82170540e-02 2.48062015e-02 3.25581394e-02
      7.75193796e-03 4.65116277e-03 1.24031007e-02 6.20155036e-03
      9.30232555e-03 1.39534883e-02 2.79069766e-02 6.20155036e-03
      1.39534883e-02 1.70542635e-02 4.34108526e-02</_>
    <_>
      2.47933865e-02 2.37603299e-02 3.66735533e-02 3.66735533e-02
      1.13636358e-02 2.63429750e-02 7.48966932e-02 1.08471066e-02
      2.53099166e-02 2.84090899e-02 4.28718999e-02 1.80785116e-02
      1.39462808e-02 1.75619833e-02 2.68595032e-02 2.99586765e-02
      2.27272715e-02 1.03305783e-02 1.29132224e-02 1.54958675e-02
      2.22107433e-02 2.63429750e-02 2.94421483e-02 3.56404930e-02
      2.11776849e-02 8.26446246e-03 3.77066098e-02 2.84090899e-02
      2.94421483e-02 1.39462808e-02 2.78925616e-02 4.28718999e-02
      2.63429750e-02 1.75619833e-02 3.77066098e-02 4.54545431e-02
      3.97727266e-02</_></support_vectors>
  <decision_functions>
    <_>
      <sv_count>84</sv_count>
      <rho>-6.1092988345037021e-02</rho>
      <alpha>
        1. 1. 1. 5.1183731928359522e-01 1. 1. 1. 1.
        5.9136840904751142e-01 1. 1. 1. 1. 1. 1. 1. 1. 1. 1. 1. 1.
        9.2399897173587742e-01 1. 1. 1. 1. 1. 1. 1. 1. 1. 1. 1. 1. 1. 1.
        1. 1. 1. 1. 1. 1. -1. -1. -1. -1. -1. -1. -1.
        -2.7204700066983938e-02 -1. -1. -1. -1. -1. -1. -1. -1. -1. -1.
        -1. -1. -1. -1. -1. -1. -1. -1. -1. -1. -1. -1. -1. -1. -1. -1.
        -1. -1. -1. -1. -1. -1. -1. -1.</alpha>
      <index>
        0 1 2 3 4 5 6 7 8 9 10 11 12 13 14 15 16 17 18 19 20 21 22 23 24
        25 26 27 28 29 30 31 32 33 34 35 36 37 38 39 40 41 42 43 44 45
        46 47 48 49 50 51 52 53 54 55 56 57 58 59 60 61 62 63 64 65 66
        67 68 69 70 71 72 73 74 75 76 77 78 79 80 81 82 83</index></_></decision_functions></opencv_ml_svm>
</opencv_storage>
